<?xml version="1.0"?>
<opencv_storage>
<stage3>
  <maxWeakCount>38</maxWeakCount>
  <stageThreshold>-2.9504993557929993e-01</stageThreshold>
  <weakClassifiers>
    <_>
      <internalNodes>
        0 -1 43336 -4.5789718627929688e-02</internalNodes>
      <leafValues>
        -2.8143712878227234e-01 8.5576999187469482e-01</leafValues></_>
    <_>
      <internalNodes>
        0 -1 45416 2.0013183355331421e-02</internalNodes>
      <leafValues>
        1.3780444860458374e-01 7.3491209745407104e-01</leafValues></_>
    <_>
      <internalNodes>
        0 -1 3502 4.8033751547336578e-02</internalNodes>
      <leafValues>
        -2.0867119729518890e-01 4.2422619462013245e-01</leafValues></_>
    <_>
      <internalNodes>
        0 -1 58229 1.2278402573429048e-04</internalNodes>
      <leafValues>
        1.6699053347110748e-01 -5.1445221900939941e-01</leafValues></_>
    <_>
      <internalNodes>
        0 -1 68190 -1.4151608571410179e-02</internalNodes>
      <leafValues>
        2.5913441181182861e-01 -3.1044998764991760e-01</leafValues></_>
    <_>
      <internalNodes>
        0 -1 46342 4.4769048690795898e-02</internalNodes>
      <leafValues>
        -1.7121413350105286e-01 5.4587250947952271e-01</leafValues></_>
    <_>
      <internalNodes>
        0 -1 48980 2.7404649881646037e-04</internalNodes>
      <leafValues>
        -2.2296887636184692e-01 2.6942533254623413e-01</leafValues></_>
    <_>
      <internalNodes>
        0 -1 44076 -2.7534016408026218e-03</internalNodes>
      <leafValues>
        -4.9893170595169067e-01 1.0457765311002731e-01</leafValues></_>
    <_>
      <internalNodes>
        0 -1 65534 -8.9700025273486972e-04</internalNodes>
      <leafValues>
        -4.5827814936637878e-01 1.0993698984384537e-01</leafValues></_>
    <_>
      <internalNodes>
        0 -1 40320 2.3962777853012085e-01</internalNodes>
      <leafValues>
        8.1035539507865906e-02 -6.7305600643157959e-01</leafValues></_>
    <_>
      <internalNodes>
        0 -1 61290 6.9041163660585880e-03</internalNodes>
      <leafValues>
        -1.9915048778057098e-01 2.9291263222694397e-01</leafValues></_>
    <_>
      <internalNodes>
        0 -1 53120 1.3057490810751915e-02</internalNodes>
      <leafValues>
        -1.1118383705615997e-01 5.7944387197494507e-01</leafValues></_>
    <_>
      <internalNodes>
        0 -1 44296 1.7100344412028790e-03</internalNodes>
      <leafValues>
        1.4472930133342743e-01 -4.1872888803482056e-01</leafValues></_>
    <_>
      <internalNodes>
        0 -1 53348 4.8640621826052666e-03</internalNodes>
      <leafValues>
        -1.6468656063079834e-01 3.3170825242996216e-01</leafValues></_>
    <_>
      <internalNodes>
        0 -1 53524 -3.9878595620393753e-02</internalNodes>
      <leafValues>
        -6.9049775600433350e-01 8.2667693495750427e-02</leafValues></_>
    <_>
      <internalNodes>
        0 -1 39416 -1.0726417414844036e-02</internalNodes>
      <leafValues>
        2.9055356979370117e-01 -1.8437860906124115e-01</leafValues></_>
    <_>
      <internalNodes>
        0 -1 57154 -1.7948270542547107e-03</internalNodes>
      <leafValues>
        4.4283258914947510e-01 -1.1195590347051620e-01</leafValues></_>
    <_>
      <internalNodes>
        0 -1 62172 -1.4838108327239752e-03</internalNodes>
      <leafValues>
        -3.8037005066871643e-01 1.2389801442623138e-01</leafValues></_>
    <_>
      <internalNodes>
        0 -1 66591 7.7831204980611801e-03</internalNodes>
      <leafValues>
        -1.1916359513998032e-01 3.8320377469062805e-01</leafValues></_>
    <_>
      <internalNodes>
        0 -1 53674 -1.8259522039443254e-03</internalNodes>
      <leafValues>
        2.4742400646209717e-01 -1.7479573190212250e-01</leafValues></_>
    <_>
      <internalNodes>
        0 -1 58230 -8.7088497821241617e-04</internalNodes>
      <leafValues>
        -4.6168842911720276e-01 1.0054916888475418e-01</leafValues></_>
    <_>
      <internalNodes>
        0 -1 57197 -3.6280816420912743e-03</internalNodes>
      <leafValues>
        4.1512244939804077e-01 -1.1353016644716263e-01</leafValues></_>
    <_>
      <internalNodes>
        0 -1 58109 3.0083733145147562e-03</internalNodes>
      <leafValues>
        9.1684758663177490e-02 -5.1103723049163818e-01</leafValues></_>
    <_>
      <internalNodes>
        0 -1 64531 8.1336853327229619e-04</internalNodes>
      <leafValues>
        -1.5523423254489899e-01 2.7163147926330566e-01</leafValues></_>
    <_>
      <internalNodes>
        0 -1 60832 3.8501089438796043e-03</internalNodes>
      <leafValues>
        -1.1988516896963120e-01 4.3217992782592773e-01</leafValues></_>
    <_>
      <internalNodes>
        0 -1 58104 -6.9490028545260429e-04</internalNodes>
      <leafValues>
        -3.8626068830490112e-01 1.1662422120571136e-01</leafValues></_>
    <_>
      <internalNodes>
        0 -1 40501 -1.1242807842791080e-02</internalNodes>
      <leafValues>
        3.4870609641075134e-01 -1.2008774280548096e-01</leafValues></_>
    <_>
      <internalNodes>
        0 -1 46177 3.6325536202639341e-03</internalNodes>
      <leafValues>
        -1.2604846060276031e-01 3.1598180532455444e-01</leafValues></_>
    <_>
      <internalNodes>
        0 -1 46432 1.8765583634376526e-01</internalNodes>
      <leafValues>
        5.9838529676198959e-02 -6.6435223817825317e-01</leafValues></_>
    <_>
      <internalNodes>
        0 -1 16931 1.6362274065613747e-02</internalNodes>
      <leafValues>
        -1.2136695533990860e-01 3.3862325549125671e-01</leafValues></_>
    <_>
      <internalNodes>
        0 -1 45126 -3.6523253656923771e-03</internalNodes>
      <leafValues>
        2.8097149729728699e-01 -1.4574597775936127e-01</leafValues></_>
    <_>
      <internalNodes>
        0 -1 64913 -2.0224615000188351e-03</internalNodes>
      <leafValues>
        1.4228379726409912e-01 -2.8756415843963623e-01</leafValues></_>
    <_>
      <internalNodes>
        0 -1 61457 8.2237934693694115e-03</internalNodes>
      <leafValues>
        7.7933929860591888e-02 -5.6679379940032959e-01</leafValues></_>
    <_>
      <internalNodes>
        0 -1 6448 -1.7810730263590813e-02</internalNodes>
      <leafValues>
        2.8751805424690247e-01 -1.4112590253353119e-01</leafValues></_>
    <_>
      <internalNodes>
        0 -1 56105 1.3729615136981010e-02</internalNodes>
      <leafValues>
        -6.3684672117233276e-02 5.3892034292221069e-01</leafValues></_>
    <_>
      <internalNodes>
        0 -1 66320 -5.5872183293104172e-03</internalNodes>
      <leafValues>
        3.3490186929702759e-01 -1.0864074528217316e-01</leafValues></_>
    <_>
      <internalNodes>
        0 -1 69207 6.4348224550485611e-03</internalNodes>
      <leafValues>
        -1.2570990622043610e-01 3.2655718922615051e-01</leafValues></_>
    <_>
      <internalNodes>
        0 -1 25538 1.5579688549041748e-01</internalNodes>
      <leafValues>
        7.6396144926548004e-02 -5.4713612794876099e-01</leafValues></_></weakClassifiers></stage3>
</opencv_storage>
