<?xml version="1.0"?>
<opencv_storage>
<stage9>
  <maxWeakCount>17</maxWeakCount>
  <stageThreshold>-1.0313112735748291e+00</stageThreshold>
  <weakClassifiers>
    <_>
      <internalNodes>
        0 -1 70693 -4.9029465299099684e-04</internalNodes>
      <leafValues>
        5.2390438318252563e-01 -2.1965317428112030e-01</leafValues></_>
    <_>
      <internalNodes>
        0 -1 52729 -3.6834455095231533e-03</internalNodes>
      <leafValues>
        5.9048867225646973e-01 -2.0477901399135590e-01</leafValues></_>
    <_>
      <internalNodes>
        0 -1 4909 1.9450264051556587e-02</internalNodes>
      <leafValues>
        -2.2472743690013885e-01 5.4484874010086060e-01</leafValues></_>
    <_>
      <internalNodes>
        0 -1 37092 2.0318514725659043e-04</internalNodes>
      <leafValues>
        1.1306800693273544e-01 -6.4574605226516724e-01</leafValues></_>
    <_>
      <internalNodes>
        0 -1 40273 6.7592584528028965e-03</internalNodes>
      <leafValues>
        -2.4471718072891235e-01 3.7338232994079590e-01</leafValues></_>
    <_>
      <internalNodes>
        0 -1 53947 1.3170358724892139e-03</internalNodes>
      <leafValues>
        1.4361822605133057e-01 -6.1709082126617432e-01</leafValues></_>
    <_>
      <internalNodes>
        0 -1 55078 1.5489721670746803e-02</internalNodes>
      <leafValues>
        -2.3852814733982086e-01 3.6045905947685242e-01</leafValues></_>
    <_>
      <internalNodes>
        0 -1 49421 -4.1802357882261276e-03</internalNodes>
      <leafValues>
        1.4011326432228088e-01 -6.7245370149612427e-01</leafValues></_>
    <_>
      <internalNodes>
        0 -1 42393 7.5523965060710907e-03</internalNodes>
      <leafValues>
        -2.3235945403575897e-01 4.9988874793052673e-01</leafValues></_>
    <_>
      <internalNodes>
        0 -1 48119 4.3243812397122383e-03</internalNodes>
      <leafValues>
        -2.1051189303398132e-01 4.5994296669960022e-01</leafValues></_>
    <_>
      <internalNodes>
        0 -1 53878 -3.5616962704807520e-03</internalNodes>
      <leafValues>
        -8.5772216320037842e-01 1.2706978619098663e-01</leafValues></_>
    <_>
      <internalNodes>
        0 -1 31053 1.0879449546337128e-01</internalNodes>
      <leafValues>
        7.6862141489982605e-02 -7.5605970621109009e-01</leafValues></_>
    <_>
      <internalNodes>
        0 -1 49097 -1.5240708598867059e-03</internalNodes>
      <leafValues>
        1.3710816204547882e-01 -4.8889330029487610e-01</leafValues></_>
    <_>
      <internalNodes>
        0 -1 54458 -1.3528732582926750e-02</internalNodes>
      <leafValues>
        4.9346750974655151e-01 -1.6979174315929413e-01</leafValues></_>
    <_>
      <internalNodes>
        0 -1 66679 -1.9968684762716293e-02</internalNodes>
      <leafValues>
        5.4061347246170044e-01 -1.4035969972610474e-01</leafValues></_>
    <_>
      <internalNodes>
        0 -1 61633 -4.5432904735207558e-03</internalNodes>
      <leafValues>
        -6.8161857128143311e-01 1.2359333783388138e-01</leafValues></_>
    <_>
      <internalNodes>
        0 -1 56153 5.4653133265674114e-03</internalNodes>
      <leafValues>
        -1.7658273875713348e-01 4.4970706105232239e-01</leafValues></_></weakClassifiers></stage9>
</opencv_storage>
